<?xml version="1.0"?>
<opencv_storage>
<cascade>
  <stageType>BOOST</stageType>
  <featureType>HAAR</featureType>
  <height>24</height>
  <width>24</width>
  <stageParams>
    <boostType>GAB</boostType>
    <minHitRate>9.9500000476837158e-01</minHitRate>
    <maxFalseAlarm>5.0000000000000000e-01</maxFalseAlarm>
    <weightTrimRate>9.4999998807907104e-01</weightTrimRate>
    <maxDepth>1</maxDepth>
    <maxWeakCount>100</maxWeakCount></stageParams>
  <featureParams>
    <maxCatCount>0</maxCatCount>
    <featSize>1</featSize>
    <mode>BASIC</mode></featureParams>
  <stageNum>20</stageNum>
  <stages>
    <!-- stage 0 -->
    <_>
      <maxWeakCount>3</maxWeakCount>
      <stageThreshold>-8.0103701353073120e-01</stageThreshold>
      <weakClassifiers>
        <_>
          <internalNodes>
            0 -1 34 -1.1865980923175812e-02</internalNodes>
          <leafValues>
            4.0909090638160706e-01 -7.2192513942718506e-01</leafValues></_>
        <_>
          <internalNodes>
            0 -1 25 -3.8712499663233757e-03</internalNodes>
          <leafValues>
            4.7282689809799194e-01 -6.8185287714004517e-01</leafValues></_>
        <_>
          <internalNodes>
            0 -1 26 -4.1993535123765469e-03</internalNodes>
          <leafValues>
            7.6381182670593262e-01 -5.2827501296997070e-01</leafValues></_></weakClassifiers></_>
    <!-- stage 1 -->
    <_>
      <maxWeakCount>4</maxWeakCount>
      <stageThreshold>-5.9569573402404785e-01</stageThreshold>
      <weakClassifiers>
        <_>
          <internalNodes>
            0 -1 17 2.1551512181758881e-02</internalNodes>
          <leafValues>
            -6.1261260509490967e-01 6.9811320304870605e-01</leafValues></_>
        <_>
          <internalNodes>
            0 -1 39 -4.3173138983547688e-03</internalNodes>
          <leafValues>
            6.6423565149307251e-01 -4.8432081937789917e-01</leafValues></_>
        <_>
          <internalNodes>
            0 -1 16 1.6674325161147863e-04</internalNodes>
          <leafValues>
            3.4919470548629761e-01 -9.6025067567825317e-01</leafValues></_>
        <_>
          <internalNodes>
            0 -1 27 -1.2237685732543468e-03</internalNodes>
          <leafValues>
            -9.0831011533737183e-01 3.1293189525604248e-01</leafValues></_></weakClassifiers></_>
    <!-- stage 2 -->
    <_>
      <maxWeakCount>5</maxWeakCount>
      <stageThreshold>-7.0727241039276123e-01</stageThreshold>
      <weakClassifiers>
        <_>
          <internalNodes>
            0 -1 2 3.1500488519668579e-02</internalNodes>
          <leafValues>
            -6.5258216857910156e-01 6.4516127109527588e-01</leafValues></_>
        <_>
          <internalNodes>
            0 -1 45 -5.0298266112804413e-02</internalNodes>
          <leafValues>
            8.3775067329406738e-01 -4.1396346688270569e-01</leafValues></_>
        <_>
          <internalNodes>
            0 -1 72 -2.5149135035462677e-04</internalNodes>
          <leafValues>
            -1. 3.6094039678573608e-01</leafValues></_>
        <_>
          <internalNodes>
            0 -1 20 -8.2930386066436768e-02</internalNodes>
          <leafValues>
            8.3538389205932617e-01 -4.3072330951690674e-01</leafValues></_>
        <_>
          <internalNodes>
            0 -1 50 -8.8143890025094151e-05</internalNodes>
          <leafValues>
            4.8962032794952393e-01 -8.3705109357833862e-01</leafValues></_></weakClassifiers></_>
    <!-- stage 3 -->
    <_>
      <maxWeakCount>4</maxWeakCount>
      <stageThreshold>-9.3905079364776611e-01</stageThreshold>
      <weakClassifiers>
        <_>
          <internalNodes>
            0 -1 21 -9.7531914710998535e-02</internalNodes>
          <leafValues>
            9.1304349899291992e-01 -6.1572051048278809e-01</leafValues></_>
        <_>
          <internalNodes>
            0 -1 30 5.2738733589649200e-02</internalNodes>
          <leafValues>
            -3.9874780178070068e-01 8.4044754505157471e-01</leafValues></_>
        <_>
          <internalNodes>
            0 -1 24 -5.9293560683727264e-02</internalNodes>
          <leafValues>
            9.2253160476684570e-01 -3.9256772398948669e-01</leafValues></_>
        <_>
          <internalNodes>
            0 -1 69 1.4995006495155394e-04</internalNodes>
          <leafValues>
            5.2579426765441895e-01 -7.7121007442474365e-01</leafValues></_></weakClassifiers></_>
    <!-- stage 4 -->
    <_>
      <maxWeakCount>3</maxWeakCount>
      <stageThreshold>-8.4370571374893188e-01</stageThreshold>
      <weakClassifiers>
        <_>
          <internalNodes>
            0 -1 48 2.8511799871921539e-02</internalNodes>
          <leafValues>
            -6.8224298954010010e-01 7.7049177885055542e-01</leafValues></_>
        <_>
          <internalNodes>
            0 -1 66 -4.6598960761912167e-04</internalNodes>
          <leafValues>
            -9.3039065599441528e-01 4.0080979466438293e-01</leafValues></_>
        <_>
          <internalNodes>
            0 -1 43 1.3182026334106922e-02</internalNodes>
          <leafValues>
            -5.5775994062423706e-01 7.6892793178558350e-01</leafValues></_></weakClassifiers></_>
    <!-- stage 5 -->
    <_>
      <maxWeakCount>2</maxWeakCount>
      <stageThreshold>-3.2511723041534424e-01</stageThreshold>
      <weakClassifiers>
        <_>
          <internalNodes>
            0 -1 41 5.1873654127120972e-02</internalNodes>
          <leafValues>
            -6.7289721965789795e-01 7.3770493268966675e-01</leafValues></_>
        <_>
          <internalNodes>
            0 -1 79 -8.6310412734746933e-04</internalNodes>
          <leafValues>
            -1. 3.4777995944023132e-01</leafValues></_></weakClassifiers></_>
    <!-- stage 6 -->
    <_>
      <maxWeakCount>4</maxWeakCount>
      <stageThreshold>-3.4217512607574463e-01</stageThreshold>
      <weakClassifiers>
        <_>
          <internalNodes>
            0 -1 44 8.1253863871097565e-02</internalNodes>
          <leafValues>
            -6.4125561714172363e-01 8.4615385532379150e-01</leafValues></_>
        <_>
          <internalNodes>
            0 -1 15 5.1344729959964752e-02</internalNodes>
          <leafValues>
            -4.1176864504814148e-01 9.4228500127792358e-01</leafValues></_>
        <_>
          <internalNodes>
            0 -1 78 4.8732597497291863e-04</internalNodes>
          <leafValues>
            4.0775907039642334e-01 -9.2834556102752686e-01</leafValues></_>
        <_>
          <internalNodes>
            0 -1 61 -3.1871345709078014e-04</internalNodes>
          <leafValues>
            -8.9999783039093018e-01 3.0309006571769714e-01</leafValues></_></weakClassifiers></_>
    <!-- stage 7 -->
    <_>
      <maxWeakCount>5</maxWeakCount>
      <stageThreshold>-6.9307357072830200e-01</stageThreshold>
      <weakClassifiers>
        <_>
          <internalNodes>
            0 -1 10 -1.5263828635215759e-01</internalNodes>
          <leafValues>
            7.4545454978942871e-01 -6.3636362552642822e-01</leafValues></_>
        <_>
          <internalNodes>
            0 -1 59 -7.5972644845023751e-04</internalNodes>
          <leafValues>
            -7.7824652194976807e-01 3.6511367559432983e-01</leafValues></_>
        <_>
          <internalNodes>
            0 -1 46 8.7727963924407959e-02</internalNodes>
          <leafValues>
            -3.7333139777183533e-01 9.7559756040573120e-01</leafValues></_>
        <_>
          <internalNodes>
            0 -1 68 4.7129503218457103e-04</internalNodes>
          <leafValues>
            3.8805454969406128e-01 -9.4696474075317383e-01</leafValues></_>
        <_>
          <internalNodes>
            0 -1 3 4.1531633585691452e-02</internalNodes>
          <leafValues>
            -4.3654677271842957e-01 7.6260733604431152e-01</leafValues></_></weakClassifiers></_>
    <!-- stage 8 -->
    <_>
      <maxWeakCount>4</maxWeakCount>
      <stageThreshold>-1.0661547183990479e+00</stageThreshold>
      <weakClassifiers>
        <_>
          <internalNodes>
            0 -1 6 -1.3372609019279480e-01</internalNodes>
          <leafValues>
            6.0000002384185791e-01 -6.8780487775802612e-01</leafValues></_>
        <_>
          <internalNodes>
            0 -1 76 -5.2342226263135672e-04</internalNodes>
          <leafValues>
            -1. 2.3730967938899994e-01</leafValues></_>
        <_>
          <internalNodes>
            0 -1 73 3.2382569042965770e-04</internalNodes>
          <leafValues>
            2.5712719559669495e-01 -8.9438796043395996e-01</leafValues></_>
        <_>
          <internalNodes>
            0 -1 80 -1.3119392096996307e-03</internalNodes>
          <leafValues>
            -8.7278676033020020e-01 3.0590847134590149e-01</leafValues></_></weakClassifiers></_>
    <!-- stage 9 -->
    <_>
      <maxWeakCount>4</maxWeakCount>
      <stageThreshold>-7.5648617744445801e-01</stageThreshold>
      <weakClassifiers>
        <_>
          <internalNodes>
            0 -1 9 -1.2424587458372116e-01</internalNodes>
          <leafValues>
            9.0697675943374634e-01 -5.9482759237289429e-01</leafValues></_>
        <_>
          <internalNodes>
            0 -1 82 5.1989883650094271e-04</internalNodes>
          <leafValues>
            3.3137658238410950e-01 -9.3816781044006348e-01</leafValues></_>
        <_>
          <internalNodes>
            0 -1 64 -9.2827633488923311e-04</internalNodes>
          <leafValues>
            -9.2507827281951904e-01 2.5940653681755066e-01</leafValues></_>
        <_>
          <internalNodes>
            0 -1 22 -1.5714605979155749e-05</internalNodes>
          <leafValues>
            5.1710265874862671e-01 -6.3118225336074829e-01</leafValues></_></weakClassifiers></_>
    <!-- stage 10 -->
    <_>
      <maxWeakCount>2</maxWeakCount>
      <stageThreshold>-4.1578441858291626e-01</stageThreshold>
      <weakClassifiers>
        <_>
          <internalNodes>
            0 -1 31 -1.7127537727355957e-01</internalNodes>
          <leafValues>
            5.0000000000000000e-01 -7.1282052993774414e-01</leafValues></_>
        <_>
          <internalNodes>
            0 -1 62 3.9708577096462250e-03</internalNodes>
          <leafValues>
            3.2723727822303772e-01 -9.1578441858291626e-01</leafValues></_></weakClassifiers></_>
    <!-- stage 11 -->
    <_>
      <maxWeakCount>6</maxWeakCount>
      <stageThreshold>-7.0748072862625122e-01</stageThreshold>
      <weakClassifiers>
        <_>
          <internalNodes>
            0 -1 56 6.2403511255979538e-03</internalNodes>
          <leafValues>
            -6.6507178544998169e-01 6.0606062412261963e-01</leafValues></_>
        <_>
          <internalNodes>
            0 -1 58 4.3222969397902489e-03</internalNodes>
          <leafValues>
            -5.3547918796539307e-01 5.4274380207061768e-01</leafValues></_>
        <_>
          <internalNodes>
            0 -1 47 -3.4620612859725952e-03</internalNodes>
          <leafValues>
            9.2681407928466797e-01 -2.9027098417282104e-01</leafValues></_>
        <_>
          <internalNodes>
            0 -1 1 4.5793558820150793e-04</internalNodes>
          <leafValues>
            -5.7845944166183472e-01 4.9611178040504456e-01</leafValues></_>
        <_>
          <internalNodes>
            0 -1 49 -7.0831119082868099e-03</internalNodes>
          <leafValues>
            6.6630584001541138e-01 -4.1802328824996948e-01</leafValues></_>
        <_>
          <internalNodes>
            0 -1 51 -1.3767809141427279e-03</internalNodes>
          <leafValues>
            7.0525276660919189e-01 -3.7539735436439514e-01</leafValues></_></weakClassifiers></_>
    <!-- stage 12 -->
    <_>
      <maxWeakCount>4</maxWeakCount>
      <stageThreshold>-5.2105098962783813e-01</stageThreshold>
      <weakClassifiers>
        <_>
          <internalNodes>
            0 -1 28 -1.1023265123367310e-01</internalNodes>
          <leafValues>
            5.0000000000000000e-01 -6.4251208305358887e-01</leafValues></_>
        <_>
          <internalNodes>
            0 -1 32 -1.0849229991436005e-01</internalNodes>
          <leafValues>
            7.7003717422485352e-01 -3.5666966438293457e-01</leafValues></_>
        <_>
          <internalNodes>
            0 -1 70 3.3150118542835116e-04</internalNodes>
          <leafValues>
            3.2787108421325684e-01 -8.5442209243774414e-01</leafValues></_>
        <_>
          <internalNodes>
            0 -1 81 -2.5663635460659862e-04</internalNodes>
          <leafValues>
            -1. 2.0584599673748016e-01</leafValues></_></weakClassifiers></_>
    <!-- stage 13 -->
    <_>
      <maxWeakCount>5</maxWeakCount>
      <stageThreshold>-9.2964744567871094e-01</stageThreshold>
      <weakClassifiers>
        <_>
          <internalNodes>
            0 -1 14 -2.9390004783635959e-05</internalNodes>
          <leafValues>
            1.2396693974733353e-01 -7.4025976657867432e-01</leafValues></_>
        <_>
          <internalNodes>
            0 -1 13 -8.3739752881228924e-05</internalNodes>
          <leafValues>
            -8.4003514051437378e-01 2.1146741509437561e-01</leafValues></_>
        <_>
          <internalNodes>
            0 -1 18 -7.2219653520733118e-04</internalNodes>
          <leafValues>
            -7.8248804807662964e-01 2.8037446737289429e-01</leafValues></_>
        <_>
          <internalNodes>
            0 -1 5 -3.7041938048787415e-04</internalNodes>
          <leafValues>
            -8.6087220907211304e-01 3.0651751160621643e-01</leafValues></_>
        <_>
          <internalNodes>
            0 -1 67 3.1076611776370555e-05</internalNodes>
          <leafValues>
            -6.5599763393402100e-01 3.6691850423812866e-01</leafValues></_></weakClassifiers></_>
    <!-- stage 14 -->
    <_>
      <maxWeakCount>4</maxWeakCount>
      <stageThreshold>-1.0661671161651611e+00</stageThreshold>
      <weakClassifiers>
        <_>
          <internalNodes>
            0 -1 0 1.9161107484251261e-03</internalNodes>
          <leafValues>
            -6.8932038545608521e-01 6.2318837642669678e-01</leafValues></_>
        <_>
          <internalNodes>
            0 -1 35 -3.1623546965420246e-03</internalNodes>
          <leafValues>
            5.2401906251907349e-01 -5.6111884117126465e-01</leafValues></_>
        <_>
          <internalNodes>
            0 -1 77 -2.7714300813386217e-05</internalNodes>
          <leafValues>
            5.1226955652236938e-01 -5.2056914567947388e-01</leafValues></_>
        <_>
          <internalNodes>
            0 -1 54 -1.4406708069145679e-03</internalNodes>
          <leafValues>
            9.0575575828552246e-01 -3.2799735665321350e-01</leafValues></_></weakClassifiers></_>
    <!-- stage 15 -->
    <_>
      <maxWeakCount>5</maxWeakCount>
      <stageThreshold>-6.8895143270492554e-01</stageThreshold>
      <weakClassifiers>
        <_>
          <internalNodes>
            0 -1 8 -8.7040327489376068e-02</internalNodes>
          <leafValues>
            5.8490568399429321e-01 -5.8558559417724609e-01</leafValues></_>
        <_>
          <internalNodes>
            0 -1 74 3.4814036916941404e-04</internalNodes>
          <leafValues>
            2.3321716487407684e-01 -8.0995589494705200e-01</leafValues></_>
        <_>
          <internalNodes>
            0 -1 40 -2.0658229477703571e-03</internalNodes>
          <leafValues>
            5.7315427064895630e-01 -4.4655513763427734e-01</leafValues></_>
        <_>
          <internalNodes>
            0 -1 33 6.3300795853137970e-02</internalNodes>
          <leafValues>
            -3.6221978068351746e-01 8.3018881082534790e-01</leafValues></_>
        <_>
          <internalNodes>
            0 -1 60 8.7349078967235982e-05</internalNodes>
          <leafValues>
            -5.4751747846603394e-01 5.0417411327362061e-01</leafValues></_></weakClassifiers></_>
    <!-- stage 16 -->
    <_>
      <maxWeakCount>4</maxWeakCount>
      <stageThreshold>-8.5253584384918213e-01</stageThreshold>
      <weakClassifiers>
        <_>
          <internalNodes>
            0 -1 36 -1.4200139048625715e-05</internalNodes>
          <leafValues>
            1.4529915153980255e-01 -7.3417723178863525e-01</leafValues></_>
        <_>
          <internalNodes>
            0 -1 52 -1.7434656911063939e-05</internalNodes>
          <leafValues>
            2.1817806363105774e-01 -7.6490336656570435e-01</leafValues></_>
        <_>
          <internalNodes>
            0 -1 7 -8.8231393601745367e-04</internalNodes>
          <leafValues>
            -8.8402479887008667e-01 2.1105463802814484e-01</leafValues></_>
        <_>
          <internalNodes>
            0 -1 63 1.1856821365654469e-02</internalNodes>
          <leafValues>
            -4.4398626685142517e-01 5.1340961456298828e-01</leafValues></_></weakClassifiers></_>
    <!-- stage 17 -->
    <_>
      <maxWeakCount>4</maxWeakCount>
      <stageThreshold>-6.0617285966873169e-01</stageThreshold>
      <weakClassifiers>
        <_>
          <internalNodes>
            0 -1 11 -8.5692197084426880e-02</internalNodes>
          <leafValues>
            4.4444444775581360e-01 -5.5656111240386963e-01</leafValues></_>
        <_>
          <internalNodes>
            0 -1 29 1.2703571701422334e-04</internalNodes>
          <leafValues>
            2.1250431239604950e-01 -8.6961567401885986e-01</leafValues></_>
        <_>
          <internalNodes>
            0 -1 57 6.6792074358090758e-04</internalNodes>
          <leafValues>
            2.2898676991462708e-01 -7.0666545629501343e-01</leafValues></_>
        <_>
          <internalNodes>
            0 -1 37 -3.6404649727046490e-03</internalNodes>
          <leafValues>
            5.9101718664169312e-01 -3.7755167484283447e-01</leafValues></_></weakClassifiers></_>
    <!-- stage 18 -->
    <_>
      <maxWeakCount>6</maxWeakCount>
      <stageThreshold>-8.0526715517044067e-01</stageThreshold>
      <weakClassifiers>
        <_>
          <internalNodes>
            0 -1 42 1.4334036037325859e-02</internalNodes>
          <leafValues>
            -4.9797570705413818e-01 8.5714286565780640e-01</leafValues></_>
        <_>
          <internalNodes>
            0 -1 12 -2.3762152704875916e-04</internalNodes>
          <leafValues>
            -7.6312214136123657e-01 2.5299221277236938e-01</leafValues></_>
        <_>
          <internalNodes>
            0 -1 23 1.1500643449835479e-04</internalNodes>
          <leafValues>
            2.4269890785217285e-01 -8.7033122777938843e-01</leafValues></_>
        <_>
          <internalNodes>
            0 -1 38 -1.0211240500211716e-02</internalNodes>
          <leafValues>
            8.5919529199600220e-01 -2.9137912392616272e-01</leafValues></_>
        <_>
          <internalNodes>
            0 -1 4 3.3265575766563416e-02</internalNodes>
          <leafValues>
            2.6928061246871948e-01 -9.5013844966888428e-01</leafValues></_>
        <_>
          <internalNodes>
            0 -1 75 1.1018484656233341e-04</internalNodes>
          <leafValues>
            3.3214610815048218e-01 -6.3917285203933716e-01</leafValues></_></weakClassifiers></_>
    <!-- stage 19 -->
    <_>
      <maxWeakCount>5</maxWeakCount>
      <stageThreshold>-6.4349931478500366e-01</stageThreshold>
      <weakClassifiers>
        <_>
          <internalNodes>
            0 -1 19 -1.5374813228845596e-03</internalNodes>
          <leafValues>
            2.8947368264198303e-01 -6.0804021358489990e-01</leafValues></_>
        <_>
          <internalNodes>
            0 -1 71 -3.4004476037807763e-04</internalNodes>
          <leafValues>
            -8.3146882057189941e-01 1.8846602737903595e-01</leafValues></_>
        <_>
          <internalNodes>
            0 -1 55 -4.2696320451796055e-03</internalNodes>
          <leafValues>
            -1. 1.5720786154270172e-01</leafValues></_>
        <_>
          <internalNodes>
            0 -1 53 3.0058659613132477e-02</internalNodes>
          <leafValues>
            -3.9864569902420044e-01 5.0035458803176880e-01</leafValues></_>
        <_>
          <internalNodes>
            0 -1 65 -9.1891671763733029e-04</internalNodes>
          <leafValues>
            -8.8000118732452393e-01 1.8155395984649658e-01</leafValues></_></weakClassifiers></_></stages>
  <features>
    <_>
      <rects>
        <_>
          0 0 4 1 -1.</_>
        <_>
          2 0 2 1 2.</_></rects>
      <tilted>0</tilted></_>
    <_>
      <rects>
        <_>
          0 0 4 2 -1.</_>
        <_>
          2 0 2 2 2.</_></rects>
      <tilted>0</tilted></_>
    <_>
      <rects>
        <_>
          0 0 9 9 -1.</_>
        <_>
          3 0 3 9 3.</_></rects>
      <tilted>0</tilted></_>
    <_>
      <rects>
        <_>
          0 0 15 18 -1.</_>
        <_>
          5 0 5 18 3.</_></rects>
      <tilted>0</tilted></_>
    <_>
      <rects>
        <_>
          0 0 9 16 -1.</_>
        <_>
          0 8 9 8 2.</_></rects>
      <tilted>0</tilted></_>
    <_>
      <rects>
        <_>
          0 6 2 8 -1.</_>
        <_>
          0 6 1 4 2.</_>
        <_>
          1 10 1 4 2.</_></rects>
      <tilted>0</tilted></_>
    <_>
      <rects>
        <_>
          0 11 18 12 -1.</_>
        <_>
          9 11 9 12 2.</_></rects>
      <tilted>0</tilted></_>
    <_>
      <rects>
        <_>
          0 13 2 5 -1.</_>
        <_>
          1 13 1 5 2.</_></rects>
      <tilted>0</tilted></_>
    <_>
      <rects>
        <_>
          0 13 10 8 -1.</_>
        <_>
          5 13 5 8 2.</_></rects>
      <tilted>0</tilted></_>
    <_>
      <rects>
        <_>
          0 15 12 8 -1.</_>
        <_>
          6 15 6 8 2.</_></rects>
      <tilted>0</tilted></_>
    <_>
      <rects>
        <_>
          0 15 24 7 -1.</_>
        <_>
          8 15 8 7 3.</_></rects>
      <tilted>0</tilted></_>
    <_>
      <rects>
        <_>
          0 17 12 5 -1.</_>
        <_>
          6 17 6 5 2.</_></rects>
      <tilted>0</tilted></_>
    <_>
      <rects>
        <_>
          0 18 4 2 -1.</_>
        <_>
          0 18 2 1 2.</_>
        <_>
          2 19 2 1 2.</_></rects>
      <tilted>0</tilted></_>
    <_>
      <rects>
        <_>
          0 21 3 3 -1.</_>
        <_>
          1 21 1 3 3.</_></rects>
      <tilted>0</tilted></_>
    <_>
      <rects>
        <_>
          1 0 1 2 -1.</_>
        <_>
          1 1 1 1 2.</_></rects>
      <tilted>0</tilted></_>
    <_>
      <rects>
        <_>
          1 13 21 3 -1.</_>
        <_>
          8 13 7 3 3.</_></rects>
      <tilted>0</tilted></_>
    <_>
      <rects>
        <_>
          1 18 2 3 -1.</_>
        <_>
          2 18 1 3 2.</_></rects>
      <tilted>0</tilted></_>
    <_>
      <rects>
        <_>
          2 0 6 10 -1.</_>
        <_>
          4 0 2 10 3.</_></rects>
      <tilted>0</tilted></_>
    <_>
      <rects>
        <_>
          2 0 6 4 -1.</_>
        <_>
          2 0 3 2 2.</_>
        <_>
          5 2 3 2 2.</_></rects>
      <tilted>0</tilted></_>
    <_>
      <rects>
        <_>
          2 6 3 7 -1.</_>
        <_>
          3 6 1 7 3.</_></rects>
      <tilted>0</tilted></_>
    <_>
      <rects>
        <_>
          2 10 15 12 -1.</_>
        <_>
          7 10 5 12 3.</_></rects>
      <tilted>0</tilted></_>
    <_>
      <rects>
        <_>
          2 10 15 13 -1.</_>
        <_>
          7 10 5 13 3.</_></rects>
      <tilted>0</tilted></_>
    <_>
      <rects>
        <_>
          2 16 2 1 -1.</_>
        <_>
          3 16 1 1 2.</_></rects>
      <tilted>0</tilted></_>
    <_>
      <rects>
        <_>
          3 0 2 2 -1.</_>
        <_>
          3 1 2 1 2.</_></rects>
      <tilted>0</tilted></_>
    <_>
      <rects>
        <_>
          3 3 18 7 -1.</_>
        <_>
          9 3 6 7 3.</_></rects>
      <tilted>0</tilted></_>
    <_>
      <rects>
        <_>
          4 1 6 6 -1.</_>
        <_>
          7 1 3 6 2.</_></rects>
      <tilted>0</tilted></_>
    <_>
      <rects>
        <_>
          4 7 13 2 -1.</_>
        <_>
          4 8 13 1 2.</_></rects>
      <tilted>0</tilted></_>
    <_>
      <rects>
        <_>
          5 0 15 1 -1.</_>
        <_>
          10 0 5 1 3.</_></rects>
      <tilted>0</tilted></_>
    <_>
      <rects>
        <_>
          5 9 15 10 -1.</_>
        <_>
          5 14 15 5 2.</_></rects>
      <tilted>0</tilted></_>
    <_>
      <rects>
        <_>
          6 3 2 2 -1.</_>
        <_>
          7 3 1 2 2.</_></rects>
      <tilted>0</tilted></_>
    <_>
      <rects>
        <_>
          6 3 12 14 -1.</_>
        <_>
          10 3 4 14 3.</_></rects>
      <tilted>0</tilted></_>
    <_>
      <rects>
        <_>
          6 4 10 20 -1.</_>
        <_>
          6 14 10 10 2.</_></rects>
      <tilted>0</tilted></_>
    <_>
      <rects>
        <_>
          7 0 17 15 -1.</_>
        <_>
          7 5 17 5 3.</_></rects>
      <tilted>0</tilted></_>
    <_>
      <rects>
        <_>
          7 2 12 20 -1.</_>
        <_>
          11 2 4 20 3.</_></rects>
      <tilted>0</tilted></_>
    <_>
      <rects>
        <_>
          7 12 12 4 -1.</_>
        <_>
          7 14 12 2 2.</_></rects>
      <tilted>0</tilted></_>
    <_>
      <rects>
        <_>
          8 0 2 14 -1.</_>
        <_>
          9 0 1 14 2.</_></rects>
      <tilted>0</tilted></_>
    <_>
      <rects>
        <_>
          8 1 2 1 -1.</_>
        <_>
          9 1 1 1 2.</_></rects>
      <tilted>0</tilted></_>
    <_>
      <rects>
        <_>
          8 1 3 11 -1.</_>
        <_>
          9 1 1 11 3.</_></rects>
      <tilted>0</tilted></_>
    <_>
      <rects>
        <_>
          8 4 6 4 -1.</_>
        <_>
          8 4 3 2 2.</_>
        <_>
          11 6 3 2 2.</_></rects>
      <tilted>0</tilted></_>
    <_>
      <rects>
        <_>
          10 1 4 8 -1.</_>
        <_>
          10 1 2 4 2.</_>
        <_>
          12 5 2 4 2.</_></rects>
      <tilted>0</tilted></_>
    <_>
      <rects>
        <_>
          11 0 3 16 -1.</_>
        <_>
          12 0 1 16 3.</_></rects>
      <tilted>0</tilted></_>
    <_>
      <rects>
        <_>
          11 0 12 14 -1.</_>
        <_>
          11 0 6 7 2.</_>
        <_>
          17 7 6 7 2.</_></rects>
      <tilted>0</tilted></_>
    <_>
      <rects>
        <_>
          11 6 6 3 -1.</_>
        <_>
          13 6 2 3 3.</_></rects>
      <tilted>0</tilted></_>
    <_>
      <rects>
        <_>
          11 13 10 8 -1.</_>
        <_>
          11 13 5 4 2.</_>
        <_>
          16 17 5 4 2.</_></rects>
      <tilted>0</tilted></_>
    <_>
      <rects>
        <_>
          12 0 12 18 -1.</_>
        <_>
          12 0 6 9 2.</_>
        <_>
          18 9 6 9 2.</_></rects>
      <tilted>0</tilted></_>
    <_>
      <rects>
        <_>
          12 2 9 22 -1.</_>
        <_>
          15 2 3 22 3.</_></rects>
      <tilted>0</tilted></_>
    <_>
      <rects>
        <_>
          12 2 6 21 -1.</_>
        <_>
          12 9 6 7 3.</_></rects>
      <tilted>0</tilted></_>
    <_>
      <rects>
        <_>
          12 10 10 2 -1.</_>
        <_>
          12 10 5 1 2.</_>
        <_>
          17 11 5 1 2.</_></rects>
      <tilted>0</tilted></_>
    <_>
      <rects>
        <_>
          13 1 8 14 -1.</_>
        <_>
          13 1 4 7 2.</_>
        <_>
          17 8 4 7 2.</_></rects>
      <tilted>0</tilted></_>
    <_>
      <rects>
        <_>
          13 12 6 9 -1.</_>
        <_>
          15 12 2 9 3.</_></rects>
      <tilted>0</tilted></_>
    <_>
      <rects>
        <_>
          14 1 10 2 -1.</_>
        <_>
          14 2 10 1 2.</_></rects>
      <tilted>0</tilted></_>
    <_>
      <rects>
        <_>
          14 11 7 3 -1.</_>
        <_>
          14 12 7 1 3.</_></rects>
      <tilted>0</tilted></_>
    <_>
      <rects>
        <_>
          15 1 6 4 -1.</_>
        <_>
          17 1 2 4 3.</_></rects>
      <tilted>0</tilted></_>
    <_>
      <rects>
        <_>
          16 7 8 16 -1.</_>
        <_>
          16 7 4 8 2.</_>
        <_>
          20 15 4 8 2.</_></rects>
      <tilted>0</tilted></_>
    <_>
      <rects>
        <_>
          16 12 6 2 -1.</_>
        <_>
          16 12 3 1 2.</_>
        <_>
          19 13 3 1 2.</_></rects>
      <tilted>0</tilted></_>
    <_>
      <rects>
        <_>
          17 1 6 4 -1.</_>
        <_>
          17 1 3 2 2.</_>
        <_>
          20 3 3 2 2.</_></rects>
      <tilted>0</tilted></_>
    <_>
      <rects>
        <_>
          17 2 3 8 -1.</_>
        <_>
          17 6 3 4 2.</_></rects>
      <tilted>0</tilted></_>
    <_>
      <rects>
        <_>
          18 0 4 4 -1.</_>
        <_>
          18 0 2 2 2.</_>
        <_>
          20 2 2 2 2.</_></rects>
      <tilted>0</tilted></_>
    <_>
      <rects>
        <_>
          18 2 6 9 -1.</_>
        <_>
          20 2 2 9 3.</_></rects>
      <tilted>0</tilted></_>
    <_>
      <rects>
        <_>
          18 20 6 4 -1.</_>
        <_>
          20 20 2 4 3.</_></rects>
      <tilted>0</tilted></_>
    <_>
      <rects>
        <_>
          18 23 6 1 -1.</_>
        <_>
          20 23 2 1 3.</_></rects>
      <tilted>0</tilted></_>
    <_>
      <rects>
        <_>
          19 23 4 1 -1.</_>
        <_>
          21 23 2 1 2.</_></rects>
      <tilted>0</tilted></_>
    <_>
      <rects>
        <_>
          20 0 4 7 -1.</_>
        <_>
          22 0 2 7 2.</_></rects>
      <tilted>0</tilted></_>
    <_>
      <rects>
        <_>
          20 2 4 22 -1.</_>
        <_>
          20 2 2 11 2.</_>
        <_>
          22 13 2 11 2.</_></rects>
      <tilted>0</tilted></_>
    <_>
      <rects>
        <_>
          20 19 1 4 -1.</_>
        <_>
          20 21 1 2 2.</_></rects>
      <tilted>0</tilted></_>
    <_>
      <rects>
        <_>
          20 20 4 2 -1.</_>
        <_>
          20 21 4 1 2.</_></rects>
      <tilted>0</tilted></_>
    <_>
      <rects>
        <_>
          20 21 3 2 -1.</_>
        <_>
          21 21 1 2 3.</_></rects>
      <tilted>0</tilted></_>
    <_>
      <rects>
        <_>
          20 22 2 1 -1.</_>
        <_>
          21 22 1 1 2.</_></rects>
      <tilted>0</tilted></_>
    <_>
      <rects>
        <_>
          20 23 3 1 -1.</_>
        <_>
          21 23 1 1 3.</_></rects>
      <tilted>0</tilted></_>
    <_>
      <rects>
        <_>
          21 21 2 2 -1.</_>
        <_>
          21 21 1 1 2.</_>
        <_>
          22 22 1 1 2.</_></rects>
      <tilted>0</tilted></_>
    <_>
      <rects>
        <_>
          21 21 2 3 -1.</_>
        <_>
          21 22 2 1 3.</_></rects>
      <tilted>0</tilted></_>
    <_>
      <rects>
        <_>
          21 21 3 3 -1.</_>
        <_>
          21 22 3 1 3.</_></rects>
      <tilted>0</tilted></_>
    <_>
      <rects>
        <_>
          21 22 3 1 -1.</_>
        <_>
          22 22 1 1 3.</_></rects>
      <tilted>0</tilted></_>
    <_>
      <rects>
        <_>
          21 23 3 1 -1.</_>
        <_>
          22 23 1 1 3.</_></rects>
      <tilted>0</tilted></_>
    <_>
      <rects>
        <_>
          22 17 2 3 -1.</_>
        <_>
          22 18 2 1 3.</_></rects>
      <tilted>0</tilted></_>
    <_>
      <rects>
        <_>
          22 18 2 2 -1.</_>
        <_>
          23 18 1 2 2.</_></rects>
      <tilted>0</tilted></_>
    <_>
      <rects>
        <_>
          22 19 2 3 -1.</_>
        <_>
          22 20 2 1 3.</_></rects>
      <tilted>0</tilted></_>
    <_>
      <rects>
        <_>
          22 20 1 2 -1.</_>
        <_>
          22 21 1 1 2.</_></rects>
      <tilted>0</tilted></_>
    <_>
      <rects>
        <_>
          22 21 2 1 -1.</_>
        <_>
          23 21 1 1 2.</_></rects>
      <tilted>0</tilted></_>
    <_>
      <rects>
        <_>
          22 21 2 2 -1.</_>
        <_>
          23 21 1 2 2.</_></rects>
      <tilted>0</tilted></_>
    <_>
      <rects>
        <_>
          23 16 1 6 -1.</_>
        <_>
          23 19 1 3 2.</_></rects>
      <tilted>0</tilted></_>
    <_>
      <rects>
        <_>
          23 17 1 3 -1.</_>
        <_>
          23 18 1 1 3.</_></rects>
      <tilted>0</tilted></_>
    <_>
      <rects>
        <_>
          23 19 1 3 -1.</_>
        <_>
          23 20 1 1 3.</_></rects>
      <tilted>0</tilted></_></features></cascade>
</opencv_storage>
