<?xml version="1.0"?>
<opencv_storage>
<stage2>
  <maxWeakCount>5</maxWeakCount>
  <stageThreshold>-7.0727241039276123e-01</stageThreshold>
  <weakClassifiers>
    <_>
      <internalNodes>
        0 -1 202 3.1500488519668579e-02</internalNodes>
      <leafValues>
        -6.5258216857910156e-01 6.4516127109527588e-01</leafValues></_>
    <_>
      <internalNodes>
        0 -1 122626 -5.0298266112804413e-02</internalNodes>
      <leafValues>
        8.3775067329406738e-01 -4.1396346688270569e-01</leafValues></_>
    <_>
      <internalNodes>
        0 -1 161176 -2.5149135035462677e-04</internalNodes>
      <leafValues>
        -1. 3.6094039678573608e-01</leafValues></_>
    <_>
      <internalNodes>
        0 -1 34038 -8.2930386066436768e-02</internalNodes>
      <leafValues>
        8.3538389205932617e-01 -4.3072330951690674e-01</leafValues></_>
    <_>
      <internalNodes>
        0 -1 134609 -8.8143890025094151e-05</internalNodes>
      <leafValues>
        4.8962032794952393e-01 -8.3705109357833862e-01</leafValues></_></weakClassifiers></stage2>
</opencv_storage>
